    0.145390391349792480E+01   -0.628739872735266658E+01
    0.156592845916748047E+01   -0.589642367377791743E+01
    0.832635998725891113E+01   -0.553233538241855172E+01
    0.802013516426086426E+01   -0.456060820520249877E+01
    0.793494760990142822E+01   -0.430695873643305305E+01
    0.790323913097381592E+01   -0.421439872580879893E+01
    0.779969155788421631E+01   -0.391913640964407506E+01
    0.779221355915069580E+01   -0.389822827995249810E+01
    0.228461921215057373E+01   -0.368664641151088546E+01
    0.768060624599456787E+01   -0.359282492303254486E+01
    0.765059411525726318E+01   -0.351282458191821689E+01
    0.763295471668243408E+01   -0.346622527005013836E+01
    0.761969387531280518E+01   -0.343139800017571162E+01
    0.242287337779998779E+01   -0.332079081342602223E+01
    0.245330631732940674E+01   -0.324282435667715419E+01
    0.251535534858703613E+01   -0.308672952189752436E+01
    0.748245716094970703E+01   -0.308129677797523982E+01
    0.747572124004364014E+01   -0.306459782920160961E+01
    0.744116544723510742E+01   -0.297964437038729102E+01
    0.742636442184448242E+01   -0.294362215379635472E+01
    0.739490211009979248E+01   -0.286777805848021927E+01
    0.737784981727600098E+01   -0.282708487675975562E+01
    0.737412869930267334E+01   -0.281824354042630176E+01
    0.262702345848083496E+01   -0.281550883330012880E+01
    0.736857652664184570E+01   -0.280507738127937500E+01
    0.735680520534515381E+01   -0.277726538797100631E+01
    0.264898538589477539E+01   -0.276363485786816909E+01
    0.267186999320983887E+01   -0.271009466425837786E+01
    0.268024265766143799E+01   -0.269063706366683419E+01
    0.268284857273101807E+01   -0.268459536844734004E+01
    0.271460354328155518E+01   -0.261151848219061122E+01
    0.274389624595642090E+01   -0.254500207450476523E+01
    0.275049924850463867E+01   -0.253012681548909768E+01
    0.275368750095367432E+01   -0.252295992168587446E+01
    0.723895847797393799E+01   -0.250646753304568648E+01
    0.276173353195190430E+01   -0.250491839099424851E+01
    0.278536915779113770E+01   -0.245229488363136738E+01
    0.282779991626739502E+01   -0.235922660188396804E+01
    0.286820590496063232E+01   -0.227227303182235829E+01
    0.289265751838684082E+01   -0.222044616740575407E+01
    0.290091633796691895E+01   -0.220307611010710502E+01
    0.708149492740631104E+01   -0.216631056640910202E+01
    0.707680046558380127E+01   -0.215655008692454686E+01
    0.293433666229248047E+01   -0.213348251237448494E+01
    0.700270295143127441E+01   -0.200540955583576874E+01
    0.700108885765075684E+01   -0.200217830810700548E+01
    0.299912242720463640E+01   -0.200175553065773260E+01
    0.699203662560360861E+01   -0.198410495887310567E+01
    0.698945581912994385E+01   -0.197896722813499792E+01
    0.696988165378570557E+01   -0.194021686496075318E+01
    0.306515693664550781E+01   -0.187180883990549773E+01
    0.693179130554199219E+01   -0.186590882408381731E+01
    0.693080544471740723E+01   -0.186400483267519235E+01
    0.306978046894073486E+01   -0.186287371904132470E+01
    0.692936241626739502E+01   -0.186121966665258043E+01
    0.692670643329620361E+01   -0.185609884005248915E+01
    0.690574765205383301E+01   -0.181593705665434868E+01
    0.689227521419525146E+01   -0.179035274312884241E+01
    0.688778281211853027E+01   -0.178186197286507308E+01
    0.688570225086765664E+01   -0.177793648946367333E+01
    0.312967906317173039E+01   -0.174905020336908801E+01
    0.314095973968505859E+01   -0.172801534473592255E+01
    0.314143955707550049E+01   -0.172712346000185590E+01
    0.685715794563293457E+01   -0.172451781751377098E+01
    0.314985692501068115E+01   -0.171151469896546615E+01
    0.684862911701202393E+01   -0.170871480613232762E+01
    0.684249937534332275E+01   -0.169740197407026727E+01
    0.315911591053009033E+01   -0.169442711543172919E+01
    0.316521883010864258E+01   -0.168321097069394909E+01
    0.683425843715667725E+01   -0.168225200714022805E+01
    0.316596150398254395E+01   -0.168184860243698608E+01
    0.682757079601287842E+01   -0.167000750721957303E+01
    0.317667722702026367E+01   -0.166225296723325755E+01
    0.681928742749832040E+01   -0.165490337192672810E+01
    0.318617224693298340E+01   -0.164498555889807108E+01
    0.681052923202514648E+01   -0.163900805000878336E+01
    0.320669054985046387E+01   -0.160797939199781581E+01
    0.320742249488830566E+01   -0.160666705591623327E+01
    0.320771217346191406E+01   -0.160614782657830801E+01
    0.321247935295104980E+01   -0.159761503181314879E+01
    0.678111195564270020E+01   -0.158617989926668201E+01
    0.322019517421722412E+01   -0.158385260893982860E+01
    0.676907110119381183E+01   -0.156480628053954307E+01
    0.676859974861145020E+01   -0.156397253539424241E+01
    0.323869049549102783E+01   -0.155110558533682052E+01
    0.675619959831237793E+01   -0.154211851455627880E+01
    0.324928998947143555E+01   -0.153249277048246313E+01
    0.674987852573394775E+01   -0.153103742741240723E+01
    0.674974143505096436E+01   -0.153079754476710406E+01
    0.325246862862830266E+01   -0.152693294696412263E+01
    0.325633406639099121E+01   -0.152018544401428812E+01
    0.674314379692077637E+01   -0.151927514837169042E+01
    0.325894773006439209E+01   -0.151563150332396646E+01
    0.673660635948181152E+01   -0.150790082389633540E+01
    0.326958715915679932E+01   -0.149716429987751809E+01
    0.327231654383938952E+01   -0.149244506234553609E+01
    0.671748340129852295E+01   -0.147487461686797161E+01
    0.328887164592742920E+01   -0.146398012205555261E+01
    0.670829474925994873E+01   -0.145913547517455555E+01
    0.329568028450012207E+01   -0.145235284632079242E+01
    0.670313715934753418E+01   -0.145033809177519402E+01
    0.330197572708129883E+01   -0.144164321571054188E+01
    0.330296204081306044E+01   -0.143996891746068645E+01
    0.669462263584136963E+01   -0.143587293895297563E+01
    0.330562770366668701E+01   -0.143544873929091210E+01
    0.669121228606968099E+01   -0.143009949827651828E+01
    0.668997526168823242E+01   -0.142800819255910483E+01
    0.668564442773688761E+01   -0.142069856838020958E+01
    0.331595361232757568E+01   -0.141800611791627063E+01
    0.667903423309326172E+01   -0.140957797794953876E+01
    0.667597055435180664E+01   -0.140443864952715103E+01
    0.666893422603607178E+01   -0.139267072541731096E+01
    0.666509866714477539E+01   -0.138627678566365375E+01
    0.334580063819885254E+01   -0.136818776429166178E+01
    0.665221929550170898E+01   -0.136491430021408178E+01
    0.335070252418518066E+01   -0.136009108186456729E+01
    0.664732396602630615E+01   -0.135683812452231933E+01
    0.336059808731079102E+01   -0.134381931566451840E+01
    0.663463763469710788E+01   -0.133602009838407776E+01
    0.336859238493768665E+01   -0.133074540324165258E+01
    0.662902414798736572E+01   -0.132685983736298141E+01
    0.662402033805847168E+01   -0.131872102921377632E+01
    0.337606080724425262E+01   -0.131858925088409418E+01
    0.338916361331939697E+01   -0.129739693232711062E+01
    0.338926136493682861E+01   -0.129723947524258421E+01
    0.339142620563507080E+01   -0.129375482595879276E+01
    0.339603245258331299E+01   -0.128635594658295105E+01
    0.340122532759074003E+01   -0.127804022656866834E+01
    0.340261638164520264E+01   -0.127581721209413246E+01
    0.341785798436344157E+01   -0.125158667882125596E+01
    0.342319254533924422E+01   -0.124316087453686563E+01
    0.657523274421691895E+01   -0.124067909922658259E+01
    0.342609643936157227E+01   -0.123858620909516048E+01
    0.342720627784729004E+01   -0.123684004622148791E+01
    0.343561768531799316E+01   -0.122364601324491673E+01
    0.343768000602722168E+01   -0.122042188178355104E+01
    0.344367384910583496E+01   -0.121107554397852368E+01
    0.344375610351562500E+01   -0.121094753267243505E+01
    0.344453632831573486E+01   -0.120973361696474768E+01
    0.344531178474426270E+01   -0.120852772332753489E+01
    0.344687461853027344E+01   -0.120609922528274183E+01
    0.345155518393204686E+01   -0.119884067420385865E+01
    0.654080256655032599E+01   -0.118703627454403593E+01
    0.346450150012969971E+01   -0.117887782155197129E+01
    0.346722781658172607E+01   -0.117469528313041138E+01
    0.653235673904418945E+01   -0.117405858784707107E+01
    0.653136074542999268E+01   -0.117253286632195142E+01
    0.346914768218994141E+01   -0.117175440947221432E+01
    0.652909576892852783E+01   -0.116906693527756289E+01
    0.348020195960998535E+01   -0.115489304178666430E+01
    0.348320297147265023E+01   -0.115033661287469902E+01
    0.348596811294555664E+01   -0.114614627750881937E+01
    0.650286614894866943E+01   -0.112930333082790213E+01
    0.649741291999816895E+01   -0.112112272648872136E+01
    0.350839436054229736E+01   -0.111244369183101099E+01
    0.351111888885498047E+01   -0.110838348156221400E+01
    0.351381778717041016E+01   -0.110436878486552814E+01
    0.648539304733276367E+01   -0.110319625253225695E+01
    0.351724743843078613E+01   -0.109927757942003268E+01
    0.351737326468751155E+01   -0.109909101813168375E+01
    0.647253990173339844E+01   -0.108418688109850336E+01
    0.352781951427459717E+01   -0.108365769127534151E+01
    0.646971550442351173E+01   -0.108003183197142882E+01
    0.646702706813812256E+01   -0.107608420932496784E+01
    0.646187067031860352E+01   -0.106853292836888158E+01
    0.646187067031860352E+01   -0.106853292836888158E+01
    0.646043062210083008E+01   -0.106642880098490878E+01
    0.354473796027573762E+01   -0.105889380213121020E+01
    0.645071915363729254E+01   -0.105229303136505115E+01
    0.645019172786272410E+01   -0.105152802378073651E+01
    0.644782245159149170E+01   -0.104809492566619866E+01
    0.355315215202286083E+01   -0.104668434759803941E+01
    0.355477511882781982E+01   -0.104433747857957115E+01
    0.356368541717529297E+01   -0.103149979041745610E+01
    0.356877803802490234E+01   -0.102419815221992394E+01
    0.357773423194885254E+01   -0.101141995748506019E+01
    0.641830205917358398E+01   -0.100579036552801426E+01
    0.641830205917358398E+01   -0.100579036552801426E+01
    0.640902249917012945E+01   -0.992672201583818747E+00
    0.640489795888500080E+01   -0.986869137439620681E+00
    0.359528064727783203E+01   -0.986618229956093273E+00
    0.640006840229034424E+01   -0.980095765545918596E+00
    0.639784276485443115E+01   -0.976982197627940252E+00
    0.639682505517307654E+01   -0.975560117379634106E+00
    0.639460726424807824E+01   -0.972464710746754557E+00
    0.361261129379272461E+01   -0.962423711055748754E+00
    0.638713002204895020E+01   -0.962064849034760528E+00
    0.638223649988867958E+01   -0.955288870812253887E+00
    0.638052999973297119E+01   -0.952931540081358719E+00
    0.362568318843841553E+01   -0.944373349270399842E+00
    0.362568318843841553E+01   -0.944373349270399842E+00
    0.637334704399108887E+01   -0.943041051619530890E+00
    0.363050103187561035E+01   -0.937763711846884007E+00
    0.636528968811035156E+01   -0.932007966230230522E+00
    0.636528968811035156E+01   -0.932007966230230522E+00
    0.363968372344970703E+01   -0.925230186123826570E+00
    0.364378359416075481E+01   -0.919661469733760062E+00
    0.635492920875549316E+01   -0.917916580369393387E+00
    0.634869120059189385E+01   -0.909483977277002031E+00
    0.365569591522216797E+01   -0.903576736175182305E+00
    0.365569591522216797E+01   -0.903576736175182305E+00
    0.634109139442443848E+01   -0.899263064099642406E+00
    0.366776049137115479E+01   -0.887431054175813472E+00
    0.366776049137115479E+01   -0.887431054175813472E+00
    0.633212268352508545E+01   -0.887275421981037482E+00
    0.366944657763161963E+01   -0.885186204888104844E+00
    0.632937610149383545E+01   -0.883620409611474145E+00
    0.367231539417028330E+01   -0.881373206278605159E+00
    0.632290944275690237E+01   -0.875044696867688931E+00
    0.367830478030920460E+01   -0.873439126876749961E+00
    0.367830478030920460E+01   -0.873439126876749961E+00
    0.631853580474853516E+01   -0.869268334201933612E+00
    0.369833100896863520E+01   -0.847171081106305679E+00
    0.369915220253659083E+01   -0.846102496082701383E+00
    0.369915220253659083E+01   -0.846102496082701383E+00
    0.629412353038787842E+01   -0.837377855951793038E+00
    0.629412353038787842E+01   -0.837377855951793038E+00
    0.629288375377655029E+01   -0.835774200389671762E+00
    0.371417092877568189E+01   -0.826678200202796254E+00
    0.628393173217773438E+01   -0.824240346446458716E+00
    0.371776401996612549E+01   -0.822064554246715318E+00
    0.627623915672302246E+01   -0.814393192576545744E+00
    0.372488379478454590E+01   -0.812960668401530029E+00
    0.373667941283738170E+01   -0.797989452974451341E+00
    0.625868856906890869E+01   -0.792148456952368463E+00
    0.625868856906890869E+01   -0.792148456952368463E+00
    0.374538123607635498E+01   -0.787034121394647457E+00
    0.374654471874237061E+01   -0.785575071056321406E+00
    0.624939978122711182E+01   -0.780499906665177434E+00
    0.624939978122711182E+01   -0.780499906665177434E+00
    0.375316798686981201E+01   -0.777295034483138636E+00
    0.624572464724755694E+01   -0.775914948380025060E+00
    0.624572464724755694E+01   -0.775914948380025060E+00
    0.623722757113004622E+01   -0.765366031382176737E+00
    0.623669326305389404E+01   -0.764705113441443984E+00
    0.623210090955843121E+01   -0.759036325667356793E+00
    0.623144924640655518E+01   -0.758233623237636323E+00
    0.377425611019134521E+01   -0.751224041701625822E+00
    0.377456128597259521E+01   -0.750850020918569783E+00
    0.377456128597259521E+01   -0.750850020918569783E+00
    0.622219614158045786E+01   -0.746881704247079337E+00
    0.378690303307947040E+01   -0.735802125575894195E+00
    0.378690303307947040E+01   -0.735802125575894195E+00
    0.379060268402099609E+01   -0.731320933948609309E+00
    0.379060268402099609E+01   -0.731320933948609309E+00
    0.379575312137603760E+01   -0.725105272337778217E+00
    0.379575312137603760E+01   -0.725105272337778217E+00
    0.620293796062469482E+01   -0.723529868555949918E+00
    0.619851285195215773E+01   -0.718216528147247346E+00
    0.619851285195215773E+01   -0.718216528147247346E+00
    0.380273938179016113E+01   -0.716716493958102774E+00
    0.380509514803391236E+01   -0.713898802626048878E+00
    0.619373273435254035E+01   -0.712498920532396385E+00
    0.619373273435254035E+01   -0.712498920532396385E+00
    0.380686998367309570E+01   -0.711779617930119457E+00
    0.380686998367309570E+01   -0.711779617930119457E+00
    0.619049649018941750E+01   -0.708640946576660880E+00
    0.381167054176330566E+01   -0.706063450656557734E+00
    0.618044614791870117E+01   -0.696726554068050064E+00
    0.618044614791870117E+01   -0.696726554068050064E+00
    0.617893722348074803E+01   -0.694946488454247668E+00
    0.616467654838459911E+01   -0.678235731178531753E+00
    0.383609533309936523E+01   -0.677337036816538784E+00
    0.383610129356384277E+01   -0.677330099421880050E+00
    0.383610129356384277E+01   -0.677330099421880050E+00
    0.383916836653222404E+01   -0.673765040629732526E+00
    0.383916836653222404E+01   -0.673765040629732526E+00
    0.616080582141876221E+01   -0.673735077519843628E+00
    0.615918849052588158E+01   -0.671858978283835895E+00
    0.384082973003387451E+01   -0.671837857386670123E+00
    0.384082973003387451E+01   -0.671837857386670123E+00
    0.615817070007324219E+01   -0.670679685254071956E+00
    0.615461993080043079E+01   -0.666573592300795825E+00
    0.384947359561920166E+01   -0.661855503588704153E+00
    0.384947359561920166E+01   -0.661855503588704153E+00
    0.614985346794128418E+01   -0.661081498868298922E+00
    0.385354615010239954E+01   -0.657178214972514940E+00
    0.385478154337044421E+01   -0.655762656702490898E+00
    0.385478154337044421E+01   -0.655762656702490898E+00
    0.385678887367248535E+01   -0.653465839679512328E+00
    0.613769292831420898E+01   -0.647172599568079931E+00
    0.386252343654632568E+01   -0.646926466203190387E+00
    0.386252343654632568E+01   -0.646926466203190387E+00
    0.613525096150400628E+01   -0.644397372797885337E+00
    0.613525096150400628E+01   -0.644397372797885337E+00
    0.386602401733398438E+01   -0.642950764631677885E+00
    0.386602401733398438E+01   -0.642950764631677885E+00
    0.386765837669372559E+01   -0.641098775935944332E+00
    0.386902332305908203E+01   -0.639554121892160765E+00
    0.611864089965820312E+01   -0.625678731194057036E+00
    0.611503049952214184E+01   -0.621646507432298545E+00
    0.611503049952214184E+01   -0.621646507432298545E+00
    0.611257135868072510E+01   -0.618907514078337329E+00
    0.611257135868072510E+01   -0.618907514078337329E+00
    0.610977649688720703E+01   -0.615801936521620519E+00
    0.610706090927124023E+01   -0.612791928418232601E+00
    0.610468333686513187E+01   -0.610162637373741212E+00
    0.390543301383237207E+01   -0.599038443604042126E+00
    0.608704268932342529E+01   -0.590830904205752461E+00
    0.607147800978595242E+01   -0.574032562727432749E+00
    0.607147800978595242E+01   -0.574032562727432749E+00
    0.606889207572884182E+01   -0.571265134777956041E+00
    0.606889207572884182E+01   -0.571265134777956041E+00
    0.606361807005378139E+01   -0.565641699472465342E+00
    0.606269240379333496E+01   -0.564657572540028241E+00
    0.606269240379333496E+01   -0.564657572540028241E+00
    0.393828752136307036E+01   -0.563616693646686429E+00
    0.393828752136307036E+01   -0.563616693646686429E+00
    0.605996131896972656E+01   -0.561758998856021208E+00
    0.605869293212890625E+01   -0.560415362269850448E+00
    0.394270896911621094E+01   -0.558932161993652699E+00
    0.394270896911621094E+01   -0.558932161993652699E+00
    0.605365674891527039E+01   -0.555096272267348589E+00
    0.605356037616729736E+01   -0.554994733114888561E+00
    0.605214357376098633E+01   -0.553503049903270039E+00
    0.394984356363507771E+01   -0.551414270419336550E+00
    0.394984356363507771E+01   -0.551414270419336550E+00
    0.395044267177581787E+01   -0.550785292614541788E+00
    0.395245286392033668E+01   -0.548677501154352321E+00
    0.395245286392033668E+01   -0.548677501154352321E+00
    0.604714954723607612E+01   -0.548261087138359637E+00
    0.604634463787078857E+01   -0.547418550600475839E+00
    0.604604600321943586E+01   -0.547106120425677966E+00
    0.604604600321943586E+01   -0.547106120425677966E+00
    0.604589343070983887E+01   -0.546946534200998258E+00
    0.604589343070983887E+01   -0.546946534200998258E+00
    0.604534848265278946E+01   -0.546376725092244664E+00
    0.604534848265278946E+01   -0.546376725092244664E+00
    0.395471870899200439E+01   -0.546306488665670997E+00
    0.395471870899200439E+01   -0.546306488665670997E+00
    0.395867645740509033E+01   -0.542177360181206325E+00
    0.395966525332313202E+01   -0.541148192571611508E+00
    0.604023933410644531E+01   -0.541048936111110379E+00
    0.396351516246795654E+01   -0.537150409216913260E+00
    0.396823953925261774E+01   -0.532264824180825213E+00
    0.396855746804967513E+01   -0.531936848358048442E+00
    0.396855746804967513E+01   -0.531936848358048442E+00
    0.396871864795684814E+01   -0.531770613535975656E+00
    0.603059887886047363E+01   -0.531067024554232603E+00
    0.396941382490672456E+01   -0.531053932146693719E+00
    0.396941382490672456E+01   -0.531053932146693719E+00
    0.602766974740946715E+01   -0.528052554870318991E+00
    0.602766974740946715E+01   -0.528052554870318991E+00
    0.602431655944885680E+01   -0.524612206980571649E+00
    0.602415187234288041E+01   -0.524443528811713855E+00
    0.397982897769837329E+01   -0.520374457371973076E+00
    0.398283362388610840E+01   -0.517313718348333396E+00
    0.398283362388610840E+01   -0.517313718348333396E+00
    0.398635783232892127E+01   -0.513735222040461625E+00
    0.398635783232892127E+01   -0.513735222040461625E+00
    0.398833692293637254E+01   -0.511731090746923467E+00
    0.398833692293637254E+01   -0.511731090746923467E+00
    0.398908376693725586E+01   -0.510975815134884215E+00
    0.601029833139929615E+01   -0.510351359214101019E+00
    0.601029833139929615E+01   -0.510351359214101019E+00
    0.601023197174072266E+01   -0.510284318363574130E+00
    0.399015396915539711E+01   -0.509894503006299349E+00
    0.399015396915539711E+01   -0.509894503006299349E+00
    0.399053601206089459E+01   -0.509508771472961142E+00
    0.399053601206089459E+01   -0.509508771472961142E+00
    0.399406713760868470E+01   -0.505950461819392405E+00
    0.399406713760868470E+01   -0.505950461819392405E+00
    0.600530016803830424E+01   -0.505314213928921396E+00
    0.399577558040618896E+01   -0.504233342454263322E+00
    0.599477648735046387E+01   -0.494790129892663799E+00
    0.599432885646820068E+01   -0.494344937402679818E+00
    0.599432885646820068E+01   -0.494344937402679818E+00
    0.400670890583525896E+01   -0.493313598873494241E+00
    0.400862693786621094E+01   -0.491410274162262795E+00
    0.598981440067291260E+01   -0.489866273889738579E+00
    0.598445296287536621E+01   -0.484573818057043582E+00
    0.598445296287536621E+01   -0.484573818057043582E+00
    0.401633322238922119E+01   -0.483800164687586687E+00
    0.401633322238922119E+01   -0.483800164687586687E+00
    0.598230779170989990E+01   -0.482464298826990046E+00
    0.598230779170989990E+01   -0.482464298826990046E+00
    0.597882091999053955E+01   -0.479045196705563114E+00
    0.597882091999053955E+01   -0.479045196705563114E+00
    0.597132926561089850E+01   -0.471740271116103727E+00
    0.403137057164226142E+01   -0.469121484740319727E+00
    0.403448561858427102E+01   -0.466109010360298892E+00
    0.596408307552337646E+01   -0.464728088255306204E+00
    0.596408307552337646E+01   -0.464728088255306204E+00
    0.596325337886810303E+01   -0.463928535950408616E+00
    0.596325337886810303E+01   -0.463928535950408616E+00
    0.596273958683013916E+01   -0.463433756024933530E+00
    0.404009811649902595E+01   -0.460705812974358753E+00
    0.404571959947106130E+01   -0.455325541416835844E+00
    0.595209519616929228E+01   -0.453242631284321573E+00
    0.405395209789276123E+01   -0.447503316540753815E+00
    0.594395565591059771E+01   -0.445526140162803397E+00
    0.594395565591059771E+01   -0.445526140162803397E+00
    0.594382253853973985E+01   -0.445400492127799363E+00
    0.594382253853973985E+01   -0.445400492127799363E+00
    0.594345867633819580E+01   -0.445057136978910250E+00
    0.405969440937042236E+01   -0.442087301884619421E+00
    0.406036878062467910E+01   -0.441453414212376216E+00
    0.406212208331098346E+01   -0.439807493306464903E+00
    0.406212208331098346E+01   -0.439807493306464903E+00
    0.406466484069824219E+01   -0.437425930113022332E+00
    0.406699776649475098E+01   -0.435246583862891612E+00
    0.406699776649475098E+01   -0.435246583862891612E+00
    0.593071579933166504E+01   -0.433115949562790092E+00
    0.592365554700576347E+01   -0.426569784757258041E+00
    0.408217463233363631E+01   -0.421201702765947816E+00
    0.408217463233363631E+01   -0.421201702765947816E+00
    0.591614038864468750E+01   -0.419656605853019504E+00
    0.408556972096044113E+01   -0.418091367612182740E+00
    0.408805727958679199E+01   -0.415819762657321235E+00
    0.408998219083602699E+01   -0.414066206497798628E+00
    0.590722560882568359E+01   -0.411529152654566133E+00
    0.590722560882568359E+01   -0.411529152654566133E+00
    0.590360206184252778E+01   -0.408248343083033705E+00
    0.590158981582769027E+01   -0.406432098002104225E+00
    0.590158981582769027E+01   -0.406432098002104225E+00
    0.409947752952575684E+01   -0.405470359914517076E+00
    0.410335779190063477E+01   -0.401983624672652695E+00
    0.410532355308532715E+01   -0.400222972331931715E+00
    0.410532355308532715E+01   -0.400222972331931715E+00
    0.589452087879180908E+01   -0.400083801297235198E+00
    0.589427004786726805E+01   -0.399859459256262928E+00
    0.410774658123911429E+01   -0.398058081645244255E+00
    0.589198497750730787E+01   -0.397818600049356264E+00
    0.589122056961059570E+01   -0.397137051848517331E+00
    0.411053481922467867E+01   -0.395574153905837500E+00
    0.411053481922467867E+01   -0.395574153905837500E+00
    0.411385357379913330E+01   -0.392627744334284046E+00
    0.411436595985668596E+01   -0.392173826530284597E+00
    0.411832666677347436E+01   -0.388673933261386051E+00
    0.587653661317360232E+01   -0.384158217116924661E+00
    0.587534785270690918E+01   -0.383116931619298384E+00
    0.587534785270690918E+01   -0.383116931619298384E+00
    0.412955403327941895E+01   -0.378838090490063450E+00
    0.413038328355788398E+01   -0.378116616757783797E+00
    0.413193861738874091E+01   -0.376765281990485368E+00
    0.586478933043646578E+01   -0.373930293018375381E+00
    0.586326593434856402E+01   -0.372614036703349638E+00
    0.586309095084911469E+01   -0.372462994718814444E+00
    0.586259955874985295E+01   -0.372038999377720503E+00
    0.414276020077622142E+01   -0.367430036686612116E+00
    0.414276020077622142E+01   -0.367430036686612116E+00
    0.414626240730285645E+01   -0.364433938592156892E+00
    0.414626240730285645E+01   -0.364433938592156892E+00
    0.414695394293045272E+01   -0.363843787740950664E+00
    0.585256355824692243E+01   -0.363432310425326754E+00
    0.584993703558177813E+01   -0.361196482226770421E+00
    0.415334522724151611E+01   -0.358412152117359994E+00
    0.415334522724151611E+01   -0.358412152117359994E+00
    0.415455877780914307E+01   -0.357385430089784961E+00
    0.415455877780914307E+01   -0.357385430089784961E+00
    0.584143822023205317E+01   -0.354009139233642578E+00
    0.415912475790363789E+01   -0.353535586385307798E+00
    0.415912475790363789E+01   -0.353535586385307798E+00
    0.416032131014521500E+01   -0.352530151098124134E+00
    0.416137008007068587E+01   -0.351650071300323885E+00
    0.583760321140289307E+01   -0.350789569876219787E+00
    0.583589494228363037E+01   -0.349360177267676875E+00
    0.583589494228363037E+01   -0.349360177267676875E+00
    0.416455090045928955E+01   -0.348987598961691958E+00
    0.416671237683115159E+01   -0.347184131463194379E+00
    0.583315224376143071E+01   -0.347071330642353237E+00
    0.416939914226531982E+01   -0.344948892434793208E+00
    0.416939914226531982E+01   -0.344948892434793208E+00
    0.582974678119081702E+01   -0.344239860448260770E+00
    0.417088581183974405E+01   -0.343715168504320157E+00
    0.417088581183974405E+01   -0.343715168504320157E+00
    0.417485415935516357E+01   -0.340432829166736894E+00
    0.417485415935516357E+01   -0.340432829166736894E+00
    0.582351744174957275E+01   -0.339090488432880477E+00
    0.417672424529403052E+01   -0.338891484143341803E+00
    0.582177757876266710E+01   -0.337659194478515778E+00
    0.417849481105804443E+01   -0.337435387729279057E+00
    0.417849481105804443E+01   -0.337435387729279057E+00
    0.582089066505432129E+01   -0.336930741986662952E+00
    0.418072164948176095E+01   -0.335608507813943302E+00
    0.581029572560403551E+01   -0.328289581466085223E+00
    0.581021130084991455E+01   -0.328221176012455373E+00
    0.581021130084991455E+01   -0.328221176012455373E+00
    0.419070875525222064E+01   -0.327476159412705081E+00
    0.419156372547149658E+01   -0.326784604986762872E+00
    0.419156372547149658E+01   -0.326784604986762872E+00
    0.419238616066933556E+01   -0.326120056739208131E+00
    0.419257330544775275E+01   -0.325968933537784000E+00
    0.419439216412208449E+01   -0.324501992613949242E+00
    0.419439216412208449E+01   -0.324501992613949242E+00
    0.580417683330913814E+01   -0.323350189615556671E+00
    0.419738893156786830E+01   -0.322092263584884020E+00
    0.580248632501491368E+01   -0.321992150917970843E+00
    0.580248632501491368E+01   -0.321992150917970843E+00
    0.580062448978424072E+01   -0.320499786821137889E+00
    0.420179613948926356E+01   -0.318564701467121625E+00
    0.579814553260803223E+01   -0.318518145611079717E+00
    0.579814553260803223E+01   -0.318518145611079717E+00
    0.579695157639919678E+01   -0.317565907562582406E+00
    0.579494382215729509E+01   -0.315967840193024596E+00
    0.579494382215729509E+01   -0.315967840193024596E+00
    0.420642984785695173E+01   -0.314876793186170401E+00
    0.420974664768095952E+01   -0.312250180425740764E+00
    0.578849726838734568E+01   -0.310863971127152916E+00
    0.578812530984630236E+01   -0.310570752010165041E+00
    0.578812530984630236E+01   -0.310570752010165041E+00
    0.421402426182221657E+01   -0.308878930502055782E+00
    0.421898365020751953E+01   -0.304993269321585103E+00
    0.421898365020751953E+01   -0.304993269321585103E+00
    0.421900253372914946E+01   -0.304978521160744143E+00
    0.577581290832672511E+01   -0.300942834363185807E+00
    0.577581290832672511E+01   -0.300942834363185807E+00
    0.577497243881225586E+01   -0.300291140459307826E+00
    0.423032879829406738E+01   -0.296196879367727206E+00
    0.423032879829406738E+01   -0.296196879367727206E+00
    0.423509061336517334E+01   -0.292543184881033369E+00
    0.423511027117652628E+01   -0.292528148629823570E+00
    0.576389799925483004E+01   -0.291770076632766162E+00
    0.575779736042022705E+01   -0.287128419729931750E+00
    0.424476121029468700E+01   -0.285192814737772971E+00
    0.424476121029468700E+01   -0.285192814737772971E+00
    0.575237624057319152E+01   -0.283035003689524500E+00
    0.424871797048721067E+01   -0.282212343934427845E+00
    0.574910141379884543E+01   -0.280576464077714527E+00
    0.574757397174835205E+01   -0.279433421617802935E+00
    0.574720799922943115E+01   -0.279159897056224793E+00
    0.425522797204136616E+01   -0.277342686814808059E+00
    0.574401335083194020E+01   -0.276777933108085850E+00
    0.425629973411560059E+01   -0.276545042738263191E+00
    0.425710737705230713E+01   -0.275944724615051484E+00
    0.573894412149276612E+01   -0.273019207344357917E+00
    0.573894412149276612E+01   -0.273019207344357917E+00
    0.426279846270636398E+01   -0.271733053294050120E+00
    0.426295000980252325E+01   -0.271621344025050282E+00
    0.426527691930887531E+01   -0.269909002650128460E+00
    0.572977393906180055E+01   -0.266285001066888294E+00
    0.572977393906180055E+01   -0.266285001066888294E+00
    0.572967290878295898E+01   -0.266211276905892191E+00
    0.427308142185211182E+01   -0.264205309628273710E+00
    0.427400666821464537E+01   -0.263533158898400011E+00
    0.572493194703713382E+01   -0.262763163917524911E+00
    0.427520141106139118E+01   -0.262666497263699228E+00
    0.572464950575711384E+01   -0.262558453097014699E+00
    0.572354140951317003E+01   -0.261756085640152403E+00
    0.428023099899291992E+01   -0.259033707405365021E+00
    0.428023099899291992E+01   -0.259033707405365021E+00
    0.571541547775268555E+01   -0.255909652904051654E+00
    0.571541547775268555E+01   -0.255909652904051654E+00
    0.428505322531084687E+01   -0.255574445319211363E+00
    0.428505322531084687E+01   -0.255574445319211363E+00
    0.428666112410164413E+01   -0.254426175933964993E+00
    0.428698391951013758E+01   -0.254195965518562994E+00
    0.428783940595894819E+01   -0.253586355852451872E+00
    0.571189348835649113E+01   -0.253396169382186787E+00
    0.428869664669036865E+01   -0.252976230214763120E+00
    0.571075975894927979E+01   -0.252589717470819153E+00
    0.571075975894927979E+01   -0.252589717470819153E+00
    0.570940732955932617E+01   -0.251629379616247206E+00
    0.570916645922966648E+01   -0.251458533448171095E+00
    0.570916645922966648E+01   -0.251458533448171095E+00
    0.429466998145065482E+01   -0.248745217533409807E+00
    0.429844628929722461E+01   -0.246088804500416730E+00
    0.570144057273864746E+01   -0.246009438541960890E+00
    0.570144057273864746E+01   -0.246009438541960890E+00
    0.430059731006622314E+01   -0.244582061343301405E+00
    0.569926700997988078E+01   -0.244487175623101349E+00
    0.431099538201700927E+01   -0.237363681800943499E+00
    0.431170681239137643E+01   -0.236873756054219953E+00
    0.431264322653972609E+01   -0.236229667010859151E+00
    0.568380862622013083E+01   -0.233797118646531299E+00
    0.431622455286246876E+01   -0.233774431054065396E+00
    0.431622455286246876E+01   -0.233774431054065396E+00
    0.431645013902411989E+01   -0.233620206220072513E+00
    0.567888081073760986E+01   -0.230439577593877232E+00
    0.432209635945046244E+01   -0.229776672935158299E+00
    0.432325959205627441E+01   -0.228988789871920062E+00
    0.432516320570420909E+01   -0.227702349467709814E+00
    0.567386382883551388E+01   -0.227046229906429364E+00
    0.567126870155334473E+01   -0.225300834842556696E+00
    0.432906806468963623E+01   -0.225074830909655077E+00
    0.433311815557310531E+01   -0.222365697213108476E+00
    0.433660750080683766E+01   -0.220044803992874960E+00
    0.566199996167424580E+01   -0.219121974628351451E+00
    0.565923035144805908E+01   -0.217292328135165747E+00
    0.565827172919716848E+01   -0.216660834730115159E+00
    0.434544980525970459E+01   -0.214217978717279323E+00
    0.565333485603332520E+01   -0.213423217054042880E+00
    0.565198306439308240E+01   -0.212540958127697105E+00
    0.565198306439308240E+01   -0.212540958127697105E+00
    0.434843364051172898E+01   -0.212269360408399416E+00
    0.564932584177931130E+01   -0.210812024401205611E+00
    0.435353021639739968E+01   -0.208961590555596433E+00
    0.564407885074615479E+01   -0.207418782989243766E+00
    0.564243250776632177E+01   -0.206359763517462547E+00
    0.564064145088195801E+01   -0.205210734294070107E+00
    0.436245211855249249E+01   -0.203233650569102559E+00
    0.436245211855249249E+01   -0.203233650569102559E+00
    0.436346782505593911E+01   -0.202586604869508274E+00
    0.563586112883194090E+01   -0.202159687579715086E+00
    0.436429826969262180E+01   -0.202058344957897290E+00
    0.563291192054748535E+01   -0.200288749585553205E+00
    0.437012851238250732E+01   -0.198369045456736615E+00
    0.437131941318511963E+01   -0.197619640118951168E+00
    0.437372863292694092E+01   -0.196107912607779156E+00
    0.437490592756447416E+01   -0.195371299697015222E+00
    0.437535881996154785E+01   -0.195088301899914995E+00
    0.437783161243344843E+01   -0.193546751243581366E+00
    0.437865078449249268E+01   -0.193037423805897390E+00
    0.562126087184379131E+01   -0.192982535442053849E+00
    0.561968200536616980E+01   -0.192002893887318837E+00
    0.438074520535021250E+01   -0.191738250348375244E+00
    0.561678008618014246E+01   -0.190208837354191973E+00
    0.561678008618014246E+01   -0.190208837354191973E+00
    0.438407838344573975E+01   -0.189679718869406599E+00
    0.438520434622494015E+01   -0.188986847950351616E+00
    0.561435392761752539E+01   -0.188715374189539820E+00
    0.561435392761752539E+01   -0.188715374189539820E+00
    0.561375170281937841E+01   -0.188345576356843292E+00
    0.438754829902575061E+01   -0.187548543013125707E+00
    0.438871204853057861E+01   -0.186836479805840838E+00
    0.561020621405007347E+01   -0.186175811832662047E+00
    0.439035489591326300E+01   -0.185833576468464184E+00
    0.560877269017120117E+01   -0.185302094149140645E+00
    0.439305722713470459E+01   -0.184189764766706787E+00
    0.439312550433508164E+01   -0.184148326744274504E+00
    0.560684492032836879E+01   -0.184130378664172117E+00
    0.439520291281269415E+01   -0.182889758335124802E+00
    0.560454785823822021E+01   -0.182739056450209603E+00
    0.439667761325836182E+01   -0.181998951171813417E+00
    0.439726289706482731E+01   -0.181646007627342482E+00
    0.439910335129836039E+01   -0.180538391210430832E+00
    0.440282344818115234E+01   -0.178309917021124420E+00
    0.440294066416278618E+01   -0.178239925255187448E+00
    0.559683748612448628E+01   -0.178107492421698183E+00
    0.440518021583557129E+01   -0.176905287816708778E+00
    0.440777242183685303E+01   -0.175366752168493178E+00
    0.441010296344757080E+01   -0.173989256866668995E+00
    0.441217745365523140E+01   -0.172767672995623817E+00
    0.558635559702097595E+01   -0.171906443078912563E+00
    0.441722466279056825E+01   -0.169813546829783446E+00
    0.441722466279056825E+01   -0.169813546829783446E+00
    0.441822484393987125E+01   -0.169231166104393593E+00
    0.442433169829799766E+01   -0.165696996792233792E+00
    0.442487646556627734E+01   -0.165383539929768675E+00
    0.557355194043532975E+01   -0.164480914188566030E+00
    0.557190933858945847E+01   -0.163540145782915924E+00
    0.557156383991241455E+01   -0.163342611547712124E+00
    0.442845274641983089E+01   -0.163333131537517079E+00
    0.443492233753204346E+01   -0.159656382310124911E+00
    0.443524272847908829E+01   -0.159475387867872381E+00
    0.556284237109275015E+01   -0.158395767348654543E+00
    0.556085473320714030E+01   -0.157279015880426254E+00
    0.444084533273052173E+01   -0.156326970964620476E+00
    0.555890656923991067E+01   -0.156188276569763529E+00
    0.555873231803465284E+01   -0.156090901608188226E+00
    0.444177627563476562E+01   -0.155806863222096581E+00
    0.555608868598937988E+01   -0.154617313342697571E+00
    0.445297447210020891E+01   -0.149618464087022562E+00
    0.445330026251718891E+01   -0.149440301481887278E+00
    0.445978403091430664E+01   -0.145916646627597402E+00
    0.446001584114103178E+01   -0.145791445909313727E+00
    0.553833638596024791E+01   -0.144903032224370509E+00
    0.553618809185709182E+01   -0.143748834924674579E+00
    0.446486055850982666E+01   -0.143187110919207328E+00
    0.446657774119889606E+01   -0.142269653092235965E+00
    0.446674054215869276E+01   -0.142182824688602466E+00
    0.446683526039123535E+01   -0.142132319781040906E+00
    0.553204870379797153E+01   -0.141537911606550826E+00
    0.553200235355818748E+01   -0.141513252095725350E+00
    0.446899983831028358E+01   -0.140980585857252483E+00
    0.446938456184336452E+01   -0.140776371605079137E+00
    0.447070775988489011E+01   -0.140075137723035564E+00
    0.447295902208422280E+01   -0.138886096201209369E+00
    0.447575761021049257E+01   -0.137415041626106932E+00
    0.552340862555640744E+01   -0.136978294653423760E+00
    0.552072263321877088E+01   -0.135576030373145306E+00
    0.447992564222608891E+01   -0.135238668806973050E+00
    0.448370936814125365E+01   -0.133278008272551790E+00
    0.551533818244934082E+01   -0.132786721145095044E+00
    0.448594152927398682E+01   -0.132128055662583677E+00
    0.551380808745527862E+01   -0.131999375367225613E+00
    0.448727250099182129E+01   -0.131444744119590951E+00
    0.551244527804170659E+01   -0.131300081493620990E+00
    0.551069667148583520E+01   -0.130405545133355533E+00
    0.551050126552581787E+01   -0.130305771051730801E+00
    0.449024496822474717E+01   -0.129925096210094515E+00
    0.449125489655295596E+01   -0.129410790140671778E+00
    0.550777435302734375E+01   -0.128917396796168759E+00
    0.550535977934160226E+01   -0.127694253288096471E+00
    0.550450522127833430E+01   -0.127262759148550536E+00
    0.449729323387145996E+01   -0.126357046355707325E+00
    0.550239841858596535E+01   -0.126202085498839434E+00
    0.550197720527648926E+01   -0.125990557308597317E+00
    0.449923716497304405E+01   -0.125381708472117159E+00
    0.549887716770172119E+01   -0.124439214227045625E+00
    0.450162260693690719E+01   -0.124190012958182258E+00
    0.450206255458278015E+01   -0.123970849774313399E+00
    0.450486573315822802E+01   -0.122578971100469530E+00
    0.549331307411193848E+01   -0.121678894544885452E+00
    0.450730264186859131E+01   -0.121375343354834797E+00
    0.548708987376704549E+01   -0.118628272563198162E+00
    0.548443478546957497E+01   -0.117338530686476566E+00
    0.451649771105608266E+01   -0.116887231707003658E+00
    0.548344373703002930E+01   -0.116858923436780060E+00
    0.548092782497406006E+01   -0.115645786417140073E+00
    0.547997090275829279E+01   -0.115186033747305280E+00
    0.452199786984975560E+01   -0.114243018214085598E+00
    0.452215610603267848E+01   -0.114167393500926403E+00
    0.547744631767272949E+01   -0.113977493129624463E+00
    0.452564299106597900E+01   -0.112507285962415438E+00
    0.547404692521006986E+01   -0.112360243650560784E+00
    0.547028422355651855E+01   -0.110583625463078761E+00
    0.547013696369771196E+01   -0.110514382317451865E+00
    0.453006218907464042E+01   -0.110420773068659508E+00
    0.546967459922040433E+01   -0.110297114576423716E+00
    0.453047839660524776E+01   -0.110225268027189516E+00
    0.453083596318284609E+01   -0.110057446721283869E+00
    0.453148749246579996E+01   -0.109751984857991924E+00
    0.453347146511077881E+01   -0.108824436932941637E+00
    0.546609320099085139E+01   -0.108621436004949098E+00
    0.546468996661377293E+01   -0.107968382535754706E+00
    0.453552335868671008E+01   -0.107869275162837286E+00
    0.453601020066418048E+01   -0.107643266943847030E+00
    0.453746381832815437E+01   -0.106969859677785287E+00
    0.546218048561201286E+01   -0.106805400640278006E+00
    0.546169771471107879E+01   -0.106582389884716355E+00
    0.545944392681121826E+01   -0.105544360941856041E+00
    0.545877399374291006E+01   -0.105236788667409834E+00
    0.545761934540749039E+01   -0.104707732645589996E+00
    0.545608699321746826E+01   -0.104007672691075470E+00
    0.545362348784940831E+01   -0.102887134364331140E+00
    0.454814370263762591E+01   -0.102087056733017115E+00
    0.545094537677802560E+01   -0.101675866418737729E+00
    0.455137891776417103E+01   -0.100630437713223206E+00
    0.455501125155422848E+01   -0.990074931216670673E-01
    0.544386088848114014E+01   -0.985062441616335605E-01
    0.455846186168487133E+01   -0.974779637933948506E-01
    0.455851972103118896E+01   -0.974524183591896076E-01
    0.544039920661706677E+01   -0.969757305944709408E-01
    0.456085681915283203E+01   -0.964233666422842361E-01
    0.456343472003936768E+01   -0.952946218335526396E-01
    0.543600096095832708E+01   -0.950484189782923317E-01
    0.456675397115344062E+01   -0.938510607556568843E-01
    0.456693393727787011E+01   -0.937731073408238636E-01
    0.543242522908220771E+01   -0.934957893733999040E-01
    0.457009631341419276E+01   -0.924085898700339886E-01
    0.457040257540887929E+01   -0.922769736076618219E-01
    0.457046434522404077E+01   -0.922504393619060087E-01
    0.542615294456481934E+01   -0.908031660806329910E-01
    0.457385362243554550E+01   -0.908003675556533080E-01
    0.457409598520929350E+01   -0.906971149074211752E-01
    0.457433331126009257E+01   -0.905960649513986166E-01
    0.457857347592295305E+01   -0.888001575978309143E-01
    0.542017901234437893E+01   -0.882752012073488718E-01
    0.541993693493202322E+01   -0.881735146600511471E-01
    0.541907421732358507E+01   -0.878115998126877129E-01
    0.458147567025452762E+01   -0.875813072944484489E-01
    0.458279833334417042E+01   -0.870286153302009674E-01
    0.458497762680053711E+01   -0.861217851280571267E-01
    0.458615807102272832E+01   -0.856325710898145909E-01
    0.541376758022580251E+01   -0.856018052229579607E-01
    0.522255361080169678E+01   -0.247650548404365622E-01
    0.525458097457885742E+01   -0.324057363087604244E-01
    0.505159676074981689E+01   -0.133111285993692263E-02
    0.459307789802551270E+01   -0.827927985376675224E-01
    0.528303325176239014E+01   -0.400539108015962597E-01
    0.478834211826324463E+01   -0.223995294506451614E-01
    0.502885103225708008E+01   -0.416191031149537594E-03
    0.471989214420318604E+01   -0.392302054395443633E-01
    0.503450155258178711E+01   -0.595178565276910376E-03
    0.528810083866119385E+01   -0.415010466186416238E-01
    0.496448695659637451E+01   -0.630588125893893903E-03
    0.526096522808074951E+01   -0.340514251336188067E-01
    0.539821445941925049E+01   -0.792873778452829470E-01
    0.534294664859771729E+01   -0.588062018922030916E-01
    0.459181368350982666E+01   -0.833080344849079779E-01
    0.484431326389312744E+01   -0.121191798998054878E-01
    0.523190379142761230E+01   -0.268896842392507551E-01
    0.480513572692871094E+01   -0.189860424598009558E-01
    0.535766363143920898E+01   -0.639616366271411607E-01
    0.492822945117950439E+01   -0.257550583899757157E-02
    0.538294970989227295E+01   -0.733252401532880071E-01
    0.477978289127349854E+01   -0.242477874879298838E-01
    0.460569083690643311E+01   -0.777398580497745684E-01
    0.518088638782501221E+01   -0.163599426501903622E-01
    0.474128603935241699E+01   -0.334664567169795646E-01
    0.466543972492218018E+01   -0.559652888300732343E-01
    0.529866039752960205E+01   -0.445990165262699634E-01
    0.526606500148773193E+01   -0.353952925083333980E-01
    0.540311157703399658E+01   -0.812494717694178803E-01
    0.477680921554565430E+01   -0.249070631326731018E-01
    0.484482765197753906E+01   -0.120392287954018684E-01
    0.512431085109710693E+01   -0.772659385024354606E-02
    0.535269796848297119E+01   -0.621979284860074699E-01
    0.514133512973785400E+01   -0.998780944900801160E-02
    0.478017747402191162E+01   -0.241609714636936701E-01
    0.470362901687622070E+01   -0.439178798188777364E-01
    0.527948021888732910E+01   -0.390545963746546931E-01
    0.472754836082458496E+01   -0.371149478446852754E-01
    0.507520914077758789E+01   -0.282820742825151683E-02
    0.473742127418518066E+01   -0.344737936252670352E-01
    0.478501737117767334E+01   -0.231087653476791388E-01
    0.503201544284820557E+01   -0.512494290383358475E-03
    0.531754374504089355E+01   -0.504170150072980050E-01
    0.466906607151031494E+01   -0.547586325128079920E-01
    0.512202501296997070E+01   -0.744505189516075916E-02
    0.518524348735809326E+01   -0.171575748042940290E-01
    0.465599954128265381E+01   -0.591681577988723006E-01
    0.539242386817932129E+01   -0.769982461584106659E-01
    0.468817472457885742E+01   -0.486175011957357128E-01
    0.478733062744140625E+01   -0.226141310122329742E-01
    0.514807343482971191E+01   -0.109628710511344707E-01
    0.504966557025909424E+01   -0.123333443458051306E-02
    0.475863158702850342E+01   -0.291293553901894597E-01
    0.461458265781402588E+01   -0.742732638288501335E-01
    0.492629468441009521E+01   -0.271623677310373068E-02
    0.479426860809326172E+01   -0.211627028079419688E-01
    0.511720180511474609E+01   -0.686813156107746181E-02
    0.501340329647064209E+01   -0.898241781399633510E-04
    0.461480140686035156E+01   -0.741889780783822061E-01
    0.482237994670867920E+01   -0.157744416656058206E-01
    0.506992578506469727E+01   -0.244480770845711959E-02
    0.476808130741119385E+01   -0.268931399860505849E-01
    0.537329733371734619E+01   -0.696754496802398648E-01
    0.461409807205200195E+01   -0.744601489969909380E-01
    0.540035605430603027E+01   -0.801424851097465307E-01
    0.525597751140594482E+01   -0.327622431727903063E-01
    0.467653214931488037E+01   -0.523157252134254236E-01
    0.510886430740356445E+01   -0.592571871322888910E-02
    0.475050270557403564E+01   -0.311244499629381721E-01
    0.475210607051849365E+01   -0.307257001368910210E-01
    0.539399266242980957E+01   -0.776151090242649389E-01
    0.502045691013336182E+01   -0.209242586102220685E-03
    0.527175844895998935E+01   -0.369263272905695702E-01
    0.489823970545962695E+01   -0.517757877247173887E-02
    0.500118196387280722E+01   -0.698519298310725228E-06
    0.477059128723519432E+01   -0.263141787462025586E-01
    0.487720409387900400E+01   -0.753941728003823183E-02
    0.532487987097232995E+01   -0.527734652814988783E-01
    0.463271649696504628E+01   -0.674485858008134348E-01
    0.490003626785984103E+01   -0.499637387169472522E-02
    0.526523367399715703E+01   -0.351744509110150858E-01
    0.516110038861905540E+01   -0.129766676066053379E-01
    0.520735006512855314E+01   -0.214970247544076162E-01
    0.530488536362075003E+01   -0.464775424750784802E-01
    0.508220999173243815E+01   -0.337924137032377453E-02
    0.462402180863567303E+01   -0.706798001907952417E-01
    0.515139393204563412E+01   -0.114600613301190403E-01
    0.537195935389358148E+01   -0.691768804744652965E-01
    0.533589758893086596E+01   -0.564135951247845061E-01
    0.485326294744406272E+01   -0.107658812964019496E-01
    0.479012375664360945E+01   -0.220240187626954340E-01
    0.482643091034387872E+01   -0.150631144420273339E-01
    0.468398117502689537E+01   -0.499339488686908681E-01
    0.485480952328918658E+01   -0.105401372637566274E-01
    0.534286472320561234E+01   -0.587781092094305860E-01
    0.459378082457184167E+01   -0.825070092427664381E-01
    0.480954375489312369E+01   -0.181367906501052716E-01
    0.521847297135715316E+01   -0.238652196068117328E-01
    0.478677790921080781E+01   -0.227318300002572575E-01
    0.470280901054294276E+01   -0.441612421072323513E-01
    0.525612718188966177E+01   -0.328005666513699404E-01
    0.499715461244446413E+01   -0.404811517059920298E-05
    0.536735506496748727E+01   -0.674748718786333940E-01
    0.482343546661733313E+01   -0.155875172243194419E-01
    0.537750316647719373E+01   -0.712543203501539157E-01
    0.485668720940662979E+01   -0.102692779738295902E-01
    0.473018201479653211E+01   -0.364008725696294069E-01
    0.513843779740525974E+01   -0.958251187520987001E-02
    0.506049714273870332E+01   -0.182995213977352211E-02
    0.514347362607457725E+01   -0.102923406894938063E-01
    0.462630632880141857E+01   -0.698234799469367451E-01
    0.538459076900581302E+01   -0.739550298022413066E-01
    0.463709571462792702E+01   -0.658497601707074970E-01
    0.531127824057053566E+01   -0.484470715263441362E-01
    0.532094583762282003E+01   -0.515031153437067804E-01
    0.525236325407530735E+01   -0.318436060037390681E-01
    0.536358640577491474E+01   -0.660975372321604832E-01
    0.534806433154847216E+01   -0.605743894481423767E-01
    0.506410147568236102E+01   -0.205449959232816047E-02
    0.521521159624669295E+01   -0.231580155795247898E-01
    0.480252905732220725E+01   -0.194973866010280557E-01
    0.468592198750794697E+01   -0.493224989654791057E-01
    0.526170869056231894E+01   -0.342457193579218042E-01
    0.469012012210671081E+01   -0.480127693615799087E-01
    0.491791623481937989E+01   -0.336887225311359060E-02
    0.479054714030092743E+01   -0.219352502180596882E-01
    0.535809354838553276E+01   -0.641154946976709439E-01
    0.519822944659244168E+01   -0.196474567481728438E-01
    0.501331398838798936E+01   -0.886311433977577783E-04
    0.524169678075078949E+01   -0.292086669126476010E-01
    0.480619428056187914E+01   -0.187803284434638097E-01
    0.528347127499611435E+01   -0.401779818739613423E-01
    0.460298555691617217E+01   -0.788102340085809899E-01
    0.460016895811342508E+01   -0.799324310280520173E-01
    0.540609923165724027E+01   -0.824582929763004457E-01
    0.471996968193356636E+01   -0.392084895181939938E-01
    0.537230910214748114E+01   -0.693070337709317669E-01
    0.463154385548386927E+01   -0.678799652158459110E-01
    0.539753229299118065E+01   -0.790159619854129414E-01
    0.512924466344835928E+01   -0.835209151493982761E-02
    0.519854238449102812E+01   -0.197095392196916207E-01
    0.530053579399188290E+01   -0.451608817351657407E-01
    0.471193627109114388E+01   -0.414903559564374774E-01
    0.530886686055774071E+01   -0.476993687753974188E-01
    0.496634786036355447E+01   -0.566233251055414276E-03
    0.537738419322121608E+01   -0.712094146466140804E-01
    0.500287253402004239E+01   -0.412572584815045921E-05
    0.508789286744280922E+01   -0.386257807365961636E-02
    0.501431665539759486E+01   -0.102483310886740980E-03
    0.476035072208107302E+01   -0.287158882035315512E-01
    0.508766115769920368E+01   -0.384223928458232852E-02
    0.472591176265719959E+01   -0.375621809248416483E-01
    0.534393631134631164E+01   -0.591460931312535118E-01
    0.535003370849764615E+01   -0.612617985423075592E-01
    0.509987062161265392E+01   -0.498707053064894809E-02
    0.503076057613262684E+01   -0.473106522005565936E-03
    0.504601414873093379E+01   -0.105865094171624791E-02
    0.530857008491182647E+01   -0.476077486512458958E-01
    0.525412963587814019E+01   -0.322909359157780573E-01
    0.470873730958776893E+01   -0.424169774130855812E-01
    0.526911530620878832E+01   -0.362115240179249481E-01
    0.516540321540318814E+01   -0.136791118328567270E-01
    0.503637896677924246E+01   -0.661714611962613275E-03
    0.509838898608967561E+01   -0.484019629187719055E-02
    0.490689432050164953E+01   -0.433433377742477918E-02
    0.524964488438123311E+01   -0.311612841488596234E-01
    0.472075050611098757E+01   -0.389901399186347933E-01
    0.517129095939020544E+01   -0.146702963844085061E-01
    0.508740809096508606E+01   -0.382008718308037964E-02
    0.493094261558343661E+01   -0.238446117122850625E-02
    0.472223105566096457E+01   -0.385777932196110784E-01
    0.526774838452238292E+01   -0.358445987071729089E-01
    0.479841342928621994E+01   -0.203185727460709238E-01
    0.520243057130527564E+01   -0.204890680994901445E-01
    0.477051931432102094E+01   -0.263306925498471914E-01
    0.494308283322768993E+01   -0.161978193669347868E-02
    0.514098858014929139E+01   -0.993888986625658145E-02
    0.504909700642038750E+01   -0.120525801972178569E-02
    0.513277540567257873E+01   -0.881465417575892640E-02
    0.466511722273540563E+01   -0.560732372542239593E-01
    0.523042772239043785E+01   -0.265484676230223482E-01
    0.516394400787019148E+01   -0.134388188582707027E-01
    0.482214580108471225E+01   -0.158160580358993712E-01
    0.515796600495357804E+01   -0.124766293604969217E-01
    0.459151003725300999E+01   -0.834320248325186448E-01
    0.470115969324167082E+01   -0.446527644717061439E-01
    0.475832712657937140E+01   -0.292028888736915876E-01
    0.458714105200582090E+01   -0.852262554694301483E-01
    0.481793579050958432E+01   -0.165736881886849839E-01
    0.461363254297368286E+01   -0.746399059244915175E-01
    0.496169326814418099E+01   -0.733702852736809472E-03
    0.508347833490974477E+01   -0.348431619965175595E-02
    0.516214594293964169E+01   -0.131456534058927692E-01
    0.523597722719836423E+01   -0.278426258781142057E-01
    0.476203446765941774E+01   -0.283137972910683516E-01
    0.489991868485039817E+01   -0.500813482103696066E-02
    0.492310995992737954E+01   -0.295603913118458982E-02
    0.524721044888646038E+01   -0.305565030193226186E-01
    0.487278135136067725E+01   -0.809229228080772869E-02
    0.499678664114583171E+01   -0.516283756283087625E-05
    0.511870985058477057E+01   -0.704601431292927686E-02
    0.522178625081169123E+01   -0.245945705245532061E-01
    0.469965404351936833E+01   -0.451038467871327439E-01
    0.463371925799710116E+01   -0.670807909810970660E-01
    0.491750523203650758E+01   -0.340269337067522796E-02
    0.504883889353862969E+01   -0.119261876103880240E-02
    0.506806831952517101E+01   -0.231664806149038801E-02
    0.504536167837175320E+01   -0.102884093235119109E-02
    0.486719706895371829E+01   -0.881830924724172696E-02
    0.501833745552489052E+01   -0.168131137563668973E-03
    0.510986527262269341E+01   -0.603518906422937339E-02
    0.509889254560643401E+01   -0.488986778826031553E-02
    0.540448487396402832E+01   -0.818040066328479393E-01
    0.524824963097791031E+01   -0.308139396403343223E-01
    0.478331988414738429E+01   -0.234751363029514840E-01
    0.478598541528933641E+01   -0.229011212344389023E-01
    0.498397020086613818E+01   -0.128477230135978603E-03
    0.486170847244594917E+01   -0.956227329661639945E-02
    0.525802034761035397E+01   -0.332872498904839484E-01
    0.520901367980867569E+01   -0.218433591735818014E-01
    0.532675852972194352E+01   -0.533855683730231276E-01
    0.533535138250635654E+01   -0.562302748744623257E-01
    0.488261735126790164E+01   -0.688934311168159629E-02
    0.540094701597250371E+01   -0.803792548086275649E-01
    0.472261766131854710E+01   -0.384704809061961195E-01
    0.488269220495595224E+01   -0.688055938904815791E-02
    0.523503638488757339E+01   -0.276210511105097686E-01
    0.525946353478466655E+01   -0.336606629414769321E-01
    0.488032639922046663E+01   -0.716088536176956534E-02
    0.523368952860367553E+01   -0.273053978895040420E-01
    0.532519262270123406E+01   -0.528751209296535810E-01
    0.511021432583264534E+01   -0.607359880937225708E-02
    0.537525352639985954E+01   -0.704076045377650395E-01
    0.528979636885047277E+01   -0.419909676994596331E-01
    0.508166370179176141E+01   -0.333448009516686779E-02
    0.508134930615335634E+01   -0.330885480581624963E-02
    0.529230956653143902E+01   -0.427224413428988897E-01
    0.525479189084233234E+01   -0.324594538195054974E-01
    0.505747355418311262E+01   -0.165160471521959089E-02
    0.538660400447408616E+01   -0.747313281376996152E-01
    0.491939584669130614E+01   -0.324851476530571169E-02
    0.500336168010932347E+01   -0.565044657871053816E-05
    0.498710037097845404E+01   -0.832002144467553325E-04
    0.470633065498360104E+01   -0.431208421011803830E-01
    0.478276753207818661E+01   -0.235949725597008400E-01
    0.516292579720655365E+01   -0.132724076976955228E-01
    0.460406509849445200E+01   -0.783822231151039966E-01
    0.495458746339491629E+01   -0.103114924045403394E-02
    0.480633971379662572E+01   -0.187521532261864174E-01
    0.477130413563890610E+01   -0.261508991879339306E-01
    0.492131717604851815E+01   -0.309549339248994283E-02
    0.475530224187617012E+01   -0.299384964154141772E-01
    0.533093595015557309E+01   -0.547593015526859767E-01
    0.511856367105004129E+01   -0.702867204643119886E-02
    0.517125580835077781E+01   -0.146642759469391686E-01
    0.510875634110754628E+01   -0.591397086555048041E-02
    0.528731537387511796E+01   -0.412750620324994072E-01
    0.498589702033778526E+01   -0.994470176764213331E-04
    0.527188122202531062E+01   -0.369596994449881214E-01
    0.533336661968191450E+01   -0.555666515590731089E-01
    0.464910558132051310E+01   -0.615634465302075246E-01
    0.516706342511606032E+01   -0.139550940057547469E-01
    0.464841675513431252E+01   -0.618053890351429810E-01
    0.466615179464129781E+01   -0.557273121106130961E-01
    0.514659697672774463E+01   -0.107453367928574510E-01
    0.489694948892444515E+01   -0.530970391646652662E-02
    0.484774503287052738E+01   -0.115907875077983936E-01
    0.481556947784125988E+01   -0.170073087518727642E-01
    0.500116860098645688E+01   -0.682814132773996861E-06
    0.520780667055185553E+01   -0.215918061629237108E-01
    0.499903554704166453E+01   -0.465084754421020922E-06
    0.530829025756625494E+01   -0.475214414551339073E-01
    0.535369793771239966E+01   -0.625511155710022776E-01
    0.526432896209016654E+01   -0.349349000998323486E-01
    0.533939248988867909E+01   -0.575936310964185738E-01
    0.459355044683292935E+01   -0.826006196348556959E-01
    0.465579868058874080E+01   -0.592372741422258417E-01
    0.539089965348611866E+01   -0.764012695477838261E-01
    0.490483196650311282E+01   -0.452847729983232080E-02
    0.467472001216539024E+01   -0.529035352428419356E-01
    0.539727712705853957E+01   -0.789145578419434973E-01
    0.528827266602699098E+01   -0.415505649891545412E-01
    0.508665554991186930E+01   -0.375459216526423563E-02
    0.484166107006419644E+01   -0.125356083666076541E-01
    0.467168669388800062E+01   -0.538948134850957064E-01
    0.535117117098687523E+01   -0.616605956661465809E-01
    0.488479311231841429E+01   -0.663631348463875319E-02
    0.537361092435182108E+01   -0.697925613975110826E-01
    0.538406627082601208E+01   -0.737534501930998260E-01
    0.508837760559380747E+01   -0.390530058524729507E-02
    0.489712832793311126E+01   -0.529129045691874907E-02
    0.464594880952365408E+01   -0.626761227388588915E-01
    0.534156128938858288E+01   -0.583320572043956320E-01
    0.491247535693792958E+01   -0.383028157157141568E-02
    0.519610647166968942E+01   -0.192288741153673511E-01
    0.526359588348631213E+01   -0.347413948954647181E-01
    0.505559469302440867E+01   -0.154538494623911692E-02
    0.490423964917575184E+01   -0.458502239499154318E-02
    0.459411010181052859E+01   -0.823733047261297341E-01
    0.501938752527887999E+01   -0.187938068219605328E-03
    0.529687931741506901E+01   -0.440686645544186503E-01
    0.496327437267087568E+01   -0.674385851358861666E-03
    0.484006063788469731E+01   -0.127902997769249599E-01
    0.529835444756297669E+01   -0.445076881903045049E-01
    0.499400518018216921E+01   -0.179689323241283797E-04
    0.514461052031539978E+01   -0.104561012929453266E-01
    0.496357304261000110E+01   -0.663461612346397936E-03
    0.478945923724577138E+01   -0.221637063905661888E-01
    0.461555038970363540E+01   -0.739007514285133088E-01
    0.527983570085301501E+01   -0.391540097359490552E-01
    0.535264249476661114E+01   -0.621783645576096805E-01
    0.540116794695208480E+01   -0.804678608308753568E-01
    0.507047515814116601E+01   -0.248337395751117851E-02
    0.533455608216728994E+01   -0.559638860575632294E-01
    0.460907393483332051E+01   -0.764115942133514747E-01
    0.477966270621803435E+01   -0.242742615155801186E-01
    0.534170663942187840E+01   -0.583817137124968133E-01
    0.517756171107685503E+01   -0.157640806202702724E-01
    0.492697130539427075E+01   -0.266659511790843422E-02
    0.469007406888144285E+01   -0.480270413898523166E-01
    0.484933937538435966E+01   -0.113493119047874454E-01
    0.508191367956568474E+01   -0.335492544999483862E-02
    0.478773450122300837E+01   -0.225283209855225187E-01
    0.464788415502843044E+01   -0.619927841400212051E-01
    0.477286112296177745E+01   -0.257960347310923939E-01
    0.522587578685896403E+01   -0.255099355445780746E-01
    0.500850420109126748E+01   -0.361607181003575174E-04
    0.521560652213360765E+01   -0.232430861932749235E-01
    0.460351175857852102E+01   -0.786014627927485027E-01
    0.512579749454516875E+01   -0.791250481692088066E-02
    0.483307292912620756E+01   -0.139323234952520615E-01
    0.470078457911210013E+01   -0.447649340485615360E-01
    0.536910449970712467E+01   -0.681190658520234027E-01
    0.501734459129428156E+01   -0.150417423582833895E-03
    0.500958329142409209E+01   -0.459197372595384858E-04
    0.482659496677233157E+01   -0.150346527743443949E-01
    0.469329373468183242E+01   -0.470343665927091051E-01
    0.476671737718114485E+01   -0.272103910546221163E-01
    0.474566789155393121E+01   -0.323424106933114519E-01
    0.505118297467739552E+01   -0.130984844841345563E-02
    0.479209730555273694E+01   -0.216117651792160116E-01
    0.525810814488082556E+01   -0.333099072269106219E-01
    0.459821810945224119E+01   -0.807143437860656232E-01
    0.504508078363311352E+01   -0.101613852648779778E-02
    0.541300934014403978E+01   -0.852883575231075802E-01
    0.519129653596856588E+01   -0.182971823367864099E-01
    0.485330690011069965E+01   -0.107594327775661254E-01
    0.527494679783742537E+01   -0.377978708205270256E-01
    0.516264242057382727E+01   -0.132262784850568568E-01
    0.477058134414085977E+01   -0.263164598281073088E-01
    0.470227636918294056E+01   -0.443196801734463547E-01
    0.520753248824068482E+01   -0.215348668376849905E-01
    0.532524152106301507E+01   -0.528910235116918370E-01
    0.500464993517807510E+01   -0.108109485801501753E-04
    0.530087588277548338E+01   -0.452631484179632088E-01
    0.460052558291469893E+01   -0.797899049528205395E-01
    0.474082171728592439E+01   -0.335866911153086534E-01
    0.474902148420109160E+01   -0.314951076963114543E-01
    0.486531692238411306E+01   -0.906976569804351235E-02
    0.491704059156127293E+01   -0.344113172425176972E-02
    0.500687076694427979E+01   -0.236037192013039471E-04
    0.536309321073540346E+01   -0.659183398410720517E-01
    0.485550803205928005E+01   -0.104389643996910201E-01
    0.503553147067448581E+01   -0.631242704145922517E-03
